{
  "layers" : [
    {
      "activation" : "none",
      "bias" : [
        0,
        0,
        0,
        0
      ],
      "biasWeights" : [
        0,
        0,
        0,
        0
      ],
      "type" : "input",
      "nodes" : 4,
      "weights" : [
        [
          0
        ],
        [
          0
        ],
        [
          0
        ],
        [
          0
        ]
      ]
    },
    {
      "activation" : "reLu",
      "bias" : [
        0.0010000000474974513,
        0.0010000000474974513,
        0.0010000000474974513,
        0.0010000000474974513,
        0.0010000000474974513
      ],
      "biasWeights" : [
        2.2636106014251709,
        -2.4643287658691406,
        5.6180143356323242,
        -1.9773893356323242,
        -9.7964611053466797
      ],
      "type" : "hidden",
      "nodes" : 5,
      "weights" : [
        [
          -0.48182368278503418,
          1.0948368310928345,
          0.88726824522018433,
          -1.4213446378707886
        ],
        [
          0.053160447627305984,
          -0.56347507238388062,
          0.009068329818546772,
          -0.055450968444347382
        ],
        [
          -0.79020678997039795,
          0.44858238101005554,
          2.5703308582305908,
          0.61407774686813354
        ],
        [
          2.6556673049926758,
          -1.1511789560317993,
          0.50264286994934082,
          0.7278020977973938
        ],
        [
          0.60241317749023438,
          1.8991525173187256,
          -1.6872936487197876,
          1.0337738990783691
        ]
      ]
    },
    {
      "activation" : "none",
      "bias" : [
        0.0010000000474974513,
        0.0010000000474974513,
        0.0010000000474974513
      ],
      "biasWeights" : [
        -5.383549690246582,
        -2.9999291896820068,
        7.3700823783874512
      ],
      "type" : "output",
      "nodes" : 3,
      "weights" : [
        [
          -0.24025052785873413,
          -0.39828544855117798,
          -0.56556284427642822,
          1.4637932777404785,
          0.5208888053894043
        ],
        [
          -0.68776744604110718,
          0.68014687299728394,
          1.2038021087646484,
          -2.3050212860107422,
          2.5548560619354248
        ],
        [
          0.072660669684410095,
          -0.021094555035233498,
          3.1455976963043213,
          -0.25720417499542236,
          -1.2035902738571167
        ]
      ]
    }
  ],
  "learningRate" : 0.0099999997764825821
}
