{
  "layers" : [
    {
      "bias" : [
        0,
        0,
        0,
        0
      ],
      "biasWeights" : [
        0,
        0,
        0,
        0
      ],
      "weights" : [
        [
          0
        ],
        [
          0
        ],
        [
          0
        ],
        [
          0
        ]
      ],
      "normalize" : false,
      "type" : "input",
      "nodes" : 4,
      "activation" : "leakyRelu"
    },
    {
      "beta" : 0.95597141981124878,
      "bias" : [
        0.0010000000474974513,
        0.0010000000474974513,
        0.0010000000474974513,
        0.0010000000474974513,
        0.0010000000474974513
      ],
      "biasWeights" : [
        -2.6327264308929443,
        0.20331768691539764,
        1.320833683013916,
        0.40968573093414307,
        -0.87560713291168213
      ],
      "weights" : [
        [
          -1.7468072175979614,
          -1.3247584104537964,
          -0.34371039271354675,
          0.66023236513137817
        ],
        [
          0.93967163562774658,
          -1.3911800384521484,
          0.46554937958717346,
          0.11689440160989761
        ],
        [
          -0.43461313843727112,
          -0.38428595662117004,
          2.1196146011352539,
          -0.063317723572254181
        ],
        [
          -1.9485899209976196,
          -0.19339172542095184,
          0.86500704288482666,
          -0.46202954649925232
        ],
        [
          -0.79443448781967163,
          -0.54209738969802856,
          -0.16598992049694061,
          0.32108107209205627
        ]
      ],
      "normalize" : true,
      "gamma" : -5.9673027992248535,
      "type" : "hidden",
      "nodes" : 5,
      "activation" : "leakyRelu"
    },
    {
      "bias" : [
        0.0010000000474974513,
        0.0010000000474974513,
        0.0010000000474974513
      ],
      "biasWeights" : [
        -0.7552037239074707,
        1.9957056045532227,
        -0.29000395536422729
      ],
      "weights" : [
        [
          -0.14558254182338715,
          0.099478885531425476,
          -2.4742748737335205,
          -0.54324084520339966,
          -1.2929478883743286
        ],
        [
          -1.1321015357971191,
          -1.273985743522644,
          1.1248283386230469,
          0.23474889993667603,
          -0.47903364896774292
        ],
        [
          0.24169011414051056,
          -0.88540500402450562,
          0.10050144791603088,
          0.84320515394210815,
          1.5863536596298218
        ]
      ],
      "normalize" : false,
      "type" : "output",
      "nodes" : 3,
      "activation" : "reLu"
    }
  ],
  "learningRate" : 0.0010000000474974513,
  "batchNormalizerLearningRate" : 0.0099999997764825821
}