{
  "layers" : [
    {
      "beta" : 0,
      "bias" : [
        0,
        0,
        0,
        0
      ],
      "biasWeights" : [
        0,
        0,
        0,
        0
      ],
      "weights" : [
        [
          0
        ],
        [
          0
        ],
        [
          0
        ],
        [
          0
        ]
      ],
      "normalize" : true,
      "gamma" : 1,
      "type" : "input",
      "nodes" : 4,
      "activation" : "none"
    },
    {
      "beta" : -51.1619873046875,
      "bias" : [
        0.0010000000474974513,
        0.0010000000474974513,
        0.0010000000474974513,
        0.0010000000474974513,
        0.0010000000474974513
      ],
      "biasWeights" : [
        -1.7748105525970459,
        0.85357677936553955,
        2.7346746921539307,
        8.7465906143188477,
        -3.3979122638702393
      ],
      "weights" : [
        [
          -0.91813397407531738,
          1.2769190073013306,
          -2.0250861644744873,
          2.1507542133331299
        ],
        [
          -2.0028595924377441,
          1.3507293462753296,
          -1.3257266283035278,
          1.075864315032959
        ],
        [
          -2.4017491340637207,
          -0.27810370922088623,
          -1.0612467527389526,
          2.5119118690490723
        ],
        [
          -0.64143502712249756,
          1.1042637825012207,
          -2.5489597320556641,
          1.8638054132461548
        ],
        [
          -0.93763262033462524,
          1.4754689931869507,
          -1.4014782905578613,
          3.0801334381103516
        ]
      ],
      "normalize" : true,
      "gamma" : 207.45439147949219,
      "type" : "hidden",
      "nodes" : 5,
      "activation" : "reLu"
    },
    {
      "beta" : -6.1752381324768066,
      "bias" : [
        0.0010000000474974513,
        0.0010000000474974513,
        0.0010000000474974513
      ],
      "biasWeights" : [
        0.50160568952560425,
        -0.060118794441223145,
        0.19465640187263489
      ],
      "weights" : [
        [
          1.3839480876922607,
          0.96460133790969849,
          -0.062979929149150848,
          -2.5440938472747803,
          0.31727123260498047
        ],
        [
          0.61743324995040894,
          1.6465244293212891,
          0.051059562712907791,
          0.39986228942871094,
          -1.6438694000244141
        ],
        [
          0.33352187275886536,
          -0.44122552871704102,
          -0.090192437171936035,
          -1.0233159065246582,
          0.079410701990127563
        ]
      ],
      "normalize" : true,
      "gamma" : -4.0507688522338867,
      "type" : "output",
      "nodes" : 3,
      "activation" : "none"
    }
  ],
  "learningRate" : 9.9999997473787516e-05,
  "batchNormalizerLearningRate" : 0.0099999997764825821
}