{
  "layers" : [
    {
      "activation" : "none",
      "bias" : [
        0,
        0,
        0,
        0
      ],
      "type" : "input",
      "nodes" : 4,
      "weights" : [
        [
          0
        ],
        [
          0
        ],
        [
          0
        ],
        [
          0
        ]
      ]
    },
    {
      "activation" : "reLu",
      "bias" : [
        -1.4502937793731689,
        0.24401846528053284,
        -1.6652979850769043,
        2.0880787372589111,
        -1.6505630016326904
      ],
      "type" : "hidden",
      "nodes" : 5,
      "weights" : [
        [
          -0.83791559934616089,
          1.3408676385879517,
          0.60919755697250366,
          -0.16228730976581573
        ],
        [
          1.1914098262786865,
          0.82730579376220703,
          -2.2526941299438477,
          1.3907828330993652
        ],
        [
          -1.2425994873046875,
          2.8212707042694092,
          0.57220137119293213,
          2.4812161922454834
        ],
        [
          -0.065298140048980713,
          -0.82416695356369019,
          1.5655791759490967,
          -0.73008626699447632
        ],
        [
          0.60920166969299316,
          0.054597575217485428,
          -0.30226239562034607,
          -0.62799346446990967
        ]
      ]
    },
    {
      "activation" : "none",
      "bias" : [
        1.0711368322372437,
        -1.1440055370330811,
        0.075827360153198242
      ],
      "type" : "output",
      "nodes" : 3,
      "weights" : [
        [
          -0.6654241681098938,
          1.037217378616333,
          -2.9657673835754395,
          0.41933134198188782,
          -1.0595325231552124
        ],
        [
          0.98507136106491089,
          0.41190269589424133,
          1.7103623151779175,
          -1.6906083822250366,
          0.82520484924316406
        ],
        [
          -0.22113500535488129,
          -2.5604760646820068,
          -0.3397563099861145,
          2.6412553787231445,
          0.17212267220020294
        ]
      ]
    }
  ],
  "learningRate" : 0.0099999997764825821
}
