{
  "layers" : [
    {
      "beta" : 0,
      "bias" : [
        0,
        0,
        0,
        0
      ],
      "biasWeights" : [
        0,
        0,
        0,
        0
      ],
      "weights" : [
        [
          0
        ],
        [
          0
        ],
        [
          0
        ],
        [
          0
        ]
      ],
      "normalize" : true,
      "gamma" : 1,
      "type" : "input",
      "nodes" : 4,
      "activation" : "none"
    },
    {
      "beta" : 6.359067440032959,
      "bias" : [
        9.9999997473787516e-05,
        9.9999997473787516e-05,
        9.9999997473787516e-05,
        9.9999997473787516e-05,
        9.9999997473787516e-05
      ],
      "biasWeights" : [
        -0.42859038710594177,
        -0.81947821378707886,
        -1.0292210578918457,
        -0.2261517345905304,
        1.3050717115402222
      ],
      "weights" : [
        [
          0.16031214594841003,
          0.26065868139266968,
          -0.49580740928649902,
          0.71667730808258057
        ],
        [
          -1.1030482053756714,
          0.31730982661247253,
          -0.35496824979782104,
          0.11872612684965134
        ],
        [
          -0.56876295804977417,
          -1.0341730117797852,
          1.4634777307510376,
          1.3523613214492798
        ],
        [
          -1.07582688331604,
          -0.078632757067680359,
          0.55990844964981079,
          1.3163599967956543
        ],
        [
          0.080591790378093719,
          0.30628067255020142,
          0.0019654384814202785,
          -0.34605291485786438
        ]
      ],
      "normalize" : true,
      "gamma" : 45.908744812011719,
      "type" : "hidden",
      "nodes" : 5,
      "activation" : "reLu"
    },
    {
      "beta" : -4.5338615564105567e-06,
      "bias" : [
        9.9999997473787516e-05,
        9.9999997473787516e-05,
        9.9999997473787516e-05
      ],
      "biasWeights" : [
        -0.23320767283439636,
        0.18641267716884613,
        -0.1496487557888031
      ],
      "weights" : [
        [
          0.55710607767105103,
          -1.0193864107131958,
          -0.51949656009674072,
          0.49589249491691589,
          0.4030793309211731
        ],
        [
          -0.37769427895545959,
          1.6177380084991455,
          -0.038029652088880539,
          0.45009371638298035,
          -0.74557310342788696
        ],
        [
          0.097594708204269409,
          -0.040292158722877502,
          -0.168233722448349,
          1.0173385143280029,
          -0.11852484196424484
        ]
      ],
      "normalize" : true,
      "gamma" : 103.13053894042969,
      "type" : "output",
      "nodes" : 3,
      "activation" : "none"
    }
  ],
  "learningRate" : 9.9999997473787516e-05
}