{
  "layers" : [
    {
      "activation" : "none",
      "bias" : [
        0,
        0,
        0,
        0
      ],
      "type" : "input",
      "nodes" : 4,
      "weights" : [
        [
          2.4127840995788574
        ],
        [
          0.99495512247085571
        ],
        [
          1.77099609375
        ],
        [
          0.99732577800750732
        ]
      ]
    },
    {
      "activation" : "reLu",
      "bias" : [
        -0.35401880741119385,
        -0.39902883768081665,
        -0.014601739123463631,
        -0.050355777144432068,
        0.02153608575463295
      ],
      "type" : "hidden",
      "nodes" : 5,
      "weights" : [
        [
          -2.110553503036499,
          1.4548770189285278,
          0.84439688920974731,
          0.37359127402305603
        ],
        [
          1.0953438282012939,
          0.9039146900177002,
          0.44985651969909668,
          -1.1459710597991943
        ],
        [
          -1.0018939971923828,
          0.6306881308555603,
          -1.3564176559448242,
          2.3306124210357666
        ],
        [
          1.5039752721786499,
          -1.6322751045227051,
          1.2910685539245605,
          -0.4536031186580658
        ],
        [
          1.1144092082977295,
          0.19224801659584045,
          -1.5170193910598755,
          -0.49142560362815857
        ]
      ]
    },
    {
      "activation" : "none",
      "bias" : [
        0.37543401122093201,
        -0.23383566737174988,
        -0.13858857750892639
      ],
      "type" : "output",
      "nodes" : 3,
      "weights" : [
        [
          -1.7879245281219482,
          -0.43099534511566162,
          -0.063182495534420013,
          0.36676055192947388,
          0.57418078184127808
        ],
        [
          1.6961714029312134,
          1.2456902265548706,
          1.0719943046569824,
          -1.7363059520721436,
          1.5575664043426514
        ],
        [
          0.84232324361801147,
          -0.70846998691558838,
          -0.65018951892852783,
          0.58320611715316772,
          -2.9303512573242188
        ]
      ]
    }
  ],
  "learningRate" : 0.0099999997764825821
}