{
  "layers" : [
    {
      "bias" : [
        0,
        0,
        0,
        0
      ],
      "biasWeights" : [
        0,
        0,
        0,
        0
      ],
      "weights" : [
        [
          0
        ],
        [
          0
        ],
        [
          0
        ],
        [
          0
        ]
      ],
      "normalize" : false,
      "type" : "input",
      "nodes" : 4,
      "activation" : "none"
    },
    {
      "beta" : -6.671760082244873,
      "bias" : [
        0.0010000000474974513,
        0.0010000000474974513,
        0.0010000000474974513,
        0.0010000000474974513,
        0.0010000000474974513
      ],
      "biasWeights" : [
        -0.37336507439613342,
        -3.0551033020019531,
        3.1671934127807617,
        0.048245374113321304,
        1.8981544971466064
      ],
      "weights" : [
        [
          -2.338395357131958,
          -1.7556954622268677,
          5.5016627311706543,
          -0.34418904781341553
        ],
        [
          3.4021265506744385,
          -7.4875345230102539,
          1.6517460346221924,
          -5.9795694351196289
        ],
        [
          0.13298229873180389,
          -0.43050563335418701,
          -0.59769618511199951,
          -0.2122892290353775
        ],
        [
          1.0201207399368286,
          8.006047248840332,
          -0.56896162033081055,
          8.8774442672729492
        ],
        [
          -1.8782752752304077,
          0.34198963642120361,
          1.8801339864730835,
          -0.28941652178764343
        ]
      ],
      "normalize" : true,
      "gamma" : 3.4184374809265137,
      "type" : "hidden",
      "nodes" : 5,
      "activation" : "leakyRelu"
    },
    {
      "bias" : [
        0.0010000000474974513,
        0.0010000000474974513,
        0.0010000000474974513
      ],
      "biasWeights" : [
        -2.3641998767852783,
        1.8212419748306274,
        -0.65701508522033691
      ],
      "weights" : [
        [
          -2.3228359222412109,
          -0.59144675731658936,
          0.45312574505805969,
          1.4711666107177734,
          0.27349004149436951
        ],
        [
          -0.42356011271476746,
          -1.2329075336456299,
          0.68361610174179077,
          -0.94204604625701904,
          -0.36158165335655212
        ],
        [
          0.95380616188049316,
          0.69006907939910889,
          -0.57025402784347534,
          -2.905909538269043,
          1.4563850164413452
        ]
      ],
      "normalize" : false,
      "type" : "output",
      "nodes" : 3,
      "activation" : "leakyRelu"
    }
  ],
  "learningRate" : 0.0010000000474974513,
  "batchNormalizerLearningRate" : 0.0099999997764825821
}