{
  "layers" : [
    {
      "bias" : [
        0,
        0,
        0,
        0
      ],
      "biasWeights" : [
        0,
        0,
        0,
        0
      ],
      "weights" : [
        [
          0
        ],
        [
          0
        ],
        [
          0
        ],
        [
          0
        ]
      ],
      "normalize" : false,
      "type" : "input",
      "nodes" : 4,
      "activation" : "leakyRelu"
    },
    {
      "beta" : 1.7652183771133423,
      "bias" : [
        0.0010000000474974513,
        0.0010000000474974513,
        0.0010000000474974513,
        0.0010000000474974513,
        0.0010000000474974513
      ],
      "biasWeights" : [
        -0.48494982719421387,
        -0.27409982681274414,
        -0.41313660144805908,
        0.56244206428527832,
        -0.74839156866073608
      ],
      "weights" : [
        [
          0.47204917669296265,
          -1.0594995021820068,
          -0.070144474506378174,
          0.93736058473587036
        ],
        [
          -0.5900689959526062,
          0.058102265000343323,
          -0.23013372719287872,
          0.21140798926353455
        ],
        [
          0.7324751615524292,
          -1.3825277090072632,
          -1.1334117650985718,
          1.3360005617141724
        ],
        [
          1.3395862579345703,
          -1.6464494466781616,
          0.89378458261489868,
          -0.0989852175116539
        ],
        [
          0.85125815868377686,
          -0.010402125306427479,
          -0.58874517679214478,
          0.89467185735702515
        ]
      ],
      "normalize" : true,
      "gamma" : 5.8529877662658691,
      "type" : "hidden",
      "nodes" : 5,
      "activation" : "leakyRelu"
    },
    {
      "bias" : [
        0.0010000000474974513,
        0.0010000000474974513,
        0.0010000000474974513
      ],
      "biasWeights" : [
        -0.1241438239812851,
        -1.512315034866333,
        1.4890239238739014
      ],
      "weights" : [
        [
          -0.0056303688324987888,
          -0.44049274921417236,
          1.1275887489318848,
          1.0902783870697021,
          -0.94525611400604248
        ],
        [
          -1.0288064479827881,
          0.66761386394500732,
          -1.0048696994781494,
          -0.92521482706069946,
          0.70936602354049683
        ],
        [
          0.83029252290725708,
          -1.0723551511764526,
          0.067860551178455353,
          0.62524336576461792,
          -1.8548024892807007
        ]
      ],
      "normalize" : false,
      "type" : "output",
      "nodes" : 3,
      "activation" : "reLu"
    }
  ],
  "learningRate" : 0.0010000000474974513,
  "batchNormalizerLearningRate" : 0.0099999997764825821
}